#ifndef COMPLEXFN_2L_MODEL_DATA_H
#define COMPLEXFN_2L_MODEL_DATA_H

/*
 Author: Anant Jain 
 CAUTION: This is an auto generated file.
 DO NOT EDIT OR MAKE ANY CHANGES TO IT.
 This model data was generated on Sat Apr 17 04:21:30 2021

 Tools used:
 Python:3.7.10 (default, Feb 26 2021, 13:06:18) [MSC v.1916 64 bit (AMD64)]
 Numpy:1.19.2
 TensorFlow:3.7.10 (default, Feb 26 2021, 13:06:18) [MSC v.1916 64 bit (AMD64)]
 Keras: 2.4.0

 Model details are:
 NUM_OF_EPOCHS = 900
 BATCH_SIZE    = 16
*/


const int DENSE1_SIZE = 32;
const int DENSE2_SIZE = 16;

float W1_data[] = {
    -0.011816f, 0.004746f, 0.493377f, 0.478976f, 0.416921f, -0.399717f, -0.139273f, 0.453456f, -0.035166f, -0.411480f, -0.057486f, -0.041779f, -0.194801f, 0.513656f, 0.247600f, -0.022211f, -0.046667f, -0.354765f, -0.368434f, -0.055287f, 0.053486f, 0.444845f, 0.669127f, 0.422324f, -0.219258f, -0.272327f, -0.052594f, -0.028247f, 0.319025f, -0.057207f, 0.095366f, 0.000605f
};

float b1_data[] = {
    0.000000f, -0.029838f, -0.826088f, -0.563974f, -0.813422f, 0.000000f, 0.000000f, -0.607505f, 0.000000f, 0.000000f, 1.394492f, 0.000000f, 0.000000f, -0.849414f, -0.751894f, 0.000000f, 0.000000f, 0.000000f, 0.000000f, 1.199108f, 0.141918f, 0.368058f, -0.971429f, -0.776037f, 0.000000f, 0.000000f, 1.326034f, 0.493446f, -0.854725f, 1.289313f, 1.375966f, -0.008785f
};

float W2_data[] = {
    0.141433f, 0.171781f, 0.292028f, -0.012003f, 0.324062f, 0.161098f, 0.153098f, -0.154519f, -0.040776f, -0.072401f, 0.151699f, -0.089852f, 0.265888f, -0.185201f, 0.041667f, -0.294449f, 0.013800f, 0.007206f, -0.102837f, 0.323045f, 0.098342f, 0.265630f, 0.201758f, 0.211856f, 0.193851f, -0.115624f, 0.082144f, 0.258905f, 0.282661f, 0.107294f, -0.079447f, 0.091045f, -0.279032f, -0.162196f, 0.170791f, 0.039763f, -0.138432f, 0.085397f, 0.350394f, -0.016843f, -0.297241f, -0.026926f, -0.216481f, -1.487776f, 0.074098f, -0.240182f, -0.355994f, -0.636041f, -0.010903f, 0.099581f, -0.187980f, -0.198827f, 0.117158f, 0.292328f, 0.165212f, -0.226465f, -0.052661f, -0.099697f, 0.035784f, -1.351965f, -0.551533f, 0.057169f, 0.112796f, -0.038758f, -0.209536f, 0.001430f, 0.073699f, 0.026878f, 0.190599f, 0.086672f, -0.058966f, -0.171315f, -0.342771f, -0.282146f, 0.058105f, -1.610159f, 0.049677f, 0.143178f, -0.071681f, -0.788100f, 0.072140f, -0.218355f, 0.300270f, -0.303068f, 0.341838f, 0.053018f, 0.280957f, -0.264842f, 0.109320f, 0.290857f, -0.020764f, -0.326477f, 0.178040f, -0.242751f, -0.199746f, 0.202994f, -0.040882f, 0.233540f, -0.311757f, -0.337966f, 0.114433f, 0.204856f, 0.266719f, 0.147612f, 0.137580f, -0.109640f, -0.105792f, 0.182792f, 0.194541f, -0.031620f, -0.213144f, 0.272862f, 0.123030f, 0.131951f, -0.010859f, 0.114965f, -0.254535f, 0.029223f, -0.190338f, 0.282210f, -0.230892f, -0.126443f, -0.145133f, -1.733280f, -0.306391f, 0.018933f, -0.068440f, -0.581601f, 0.120924f, -0.352817f, 0.327018f, 0.095839f, 0.117390f, -0.089933f, -0.198926f, 0.180158f, 0.283315f, -0.212184f, 0.269081f, -0.269662f, 0.314622f, 0.327464f, -0.000831f, 0.217518f, 0.199273f, -0.122420f, -0.243013f, -0.016394f, -0.275064f, -0.069860f, -0.102161f, 0.011490f, 0.007912f, 0.105144f, 0.110930f, 0.039626f, 0.282750f, 0.089693f, -0.273895f, -0.189802f, -0.106831f, -0.098903f, 0.266260f, 0.104623f, 0.012476f, -0.004647f, 0.066988f, 0.032775f, -0.116497f, 0.347225f, 0.661775f, 1.318006f, 0.409524f, 0.180019f, 0.211687f, 1.505603f, 0.064491f, 0.005742f, 0.038499f, 0.183700f, 0.028224f, 0.353212f, -0.116854f, 0.202522f, 0.225173f, -0.274017f, -0.309462f, 0.168354f, 0.306954f, -0.003251f, -0.097915f, 0.142462f, 0.135256f, -0.254855f, 0.246801f, -0.013523f, -0.128524f, -0.171774f, -0.040459f, -0.154106f, -0.194275f, 0.149603f, 0.344786f, -0.082923f, 0.264696f, -0.129233f, -0.275535f, -0.110190f, -0.258410f, 0.341244f, -0.427183f, -0.086147f, -0.181240f, 0.096136f, 0.035607f, 0.200071f, -0.176309f, -0.242237f, -0.334994f, -1.453003f, -0.674816f, -0.309653f, -0.386825f, -0.645763f, 0.220253f, -0.006631f, 0.036559f, -0.096942f, -0.038801f, 0.441121f, -0.232977f, 0.122248f, -0.199709f, -0.198917f, -0.010580f, 5.710913f, -0.575037f, -0.029812f, -0.134051f, -1.532073f, 0.069101f, -0.029680f, -0.348730f, -0.126684f, -0.302944f, -0.201480f, 0.270872f, 0.017605f, -0.257762f, -0.307084f, -0.134266f, -0.138622f, -0.066380f, -0.217695f, -0.242301f, 0.090424f, 0.283890f, -0.166920f, -0.034087f, -0.315373f, 0.222901f, -0.282755f, 0.259870f, 0.218272f, -0.040033f, -0.283302f, -0.071473f, 0.350760f, -0.300870f, 0.076163f, 0.111788f, 0.070951f, 0.306988f, -0.186961f, -0.101588f, 0.102673f, 0.168126f, 0.204374f, 0.116460f, -0.202305f, 0.215341f, 0.117332f, -0.350468f, 0.097938f, 0.058439f, -0.337658f, 0.245189f, -0.062762f, 0.167927f, -0.302229f, 0.117737f, 0.164288f, 0.018063f, -0.327548f, 0.115893f, 0.117970f, 0.249609f, -0.272277f, -0.247921f, 0.256351f, 0.298280f, 0.200076f, -0.196994f, -0.291841f, 0.110010f, -0.302490f, 0.146023f, 0.467506f, -0.224986f, -0.260856f, -0.300441f, -0.342574f, 0.223870f, 0.452876f, 0.240748f, 1.273034f, 0.026205f, 0.268281f, 0.025404f, 1.124495f, 0.064209f, -0.201636f, 0.222101f, -0.125390f, 0.058595f, -0.199046f, -0.253534f, -0.045940f, -0.030697f, 0.172323f, 0.243071f, -0.180941f, -0.996205f, 0.160161f, 0.077149f, 0.086316f, -0.210311f, -0.212378f, 0.347464f, 0.090076f, -0.071011f, 0.214744f, -0.249869f, 0.075964f, -0.858281f, 0.396727f, 0.264712f, 0.471414f, -1.319642f, 0.421568f, 0.196513f, 0.168500f, -0.279306f, -0.053713f, -0.239014f, -0.043366f, 0.011655f, 0.394213f, -0.137536f, -0.211813f, 0.262156f, 0.198370f, -0.335918f, -1.314023f, -0.410421f, -0.368949f, -0.227271f, -0.479923f, 0.104973f, 0.068132f, -0.330545f, -0.033381f, 0.228763f, 0.107117f, -0.306321f, -0.130440f, 0.071136f, -0.413201f, 0.215959f, -1.087609f, -0.024920f, -0.355316f, 0.158874f, -0.594287f, 0.152161f, 0.171685f, 0.259591f, 0.236176f, -0.345027f, -0.222417f, -0.157341f, -0.192995f, 0.053928f, -0.221946f, -0.031972f, -0.198448f, -0.273651f, 0.195225f, -0.216870f, -0.250971f, 0.039843f, -0.344598f, 0.182463f, -0.013665f, 0.030106f, 0.244695f, -0.004449f, -0.251524f, 0.219767f, -0.115677f, 0.275172f, 0.212846f, -0.236444f, -0.146203f, 0.016258f, -0.104710f, -0.035913f, -0.215257f, 0.476482f, 0.477144f, 0.241784f, 0.031396f, 0.289581f, -0.096978f, 0.262179f, 0.358276f, 0.381068f, 0.962263f, 0.500682f, 0.442104f, -0.291843f, 1.093901f, 0.249620f, -0.276428f, 0.169235f, -0.266092f, 0.017689f, -0.025225f, -0.246479f, 0.202026f, -0.211747f, 0.072923f, 0.340628f, 0.663259f, 0.103036f, 0.365245f, 0.061733f, 0.274509f, -0.149269f, -0.030700f, 0.147063f, 0.011121f, 0.214413f, 0.057313f, -0.325644f, -0.257137f, -0.193862f, -0.351027f, -0.077563f, 3.174142f, 0.142882f, 0.311052f, 0.093308f, -1.547549f, -0.288175f, 0.035627f, 0.306652f, 0.410637f, -0.152805f, -0.228389f, 0.074891f, -0.053327f, 0.089209f, 0.536923f, 0.296580f, 0.794830f, 0.430282f, 0.317781f, -0.049897f, 0.989804f, -0.345541f, -0.035145f, 0.360305f, 0.485124f, -0.255733f, 0.140543f, -0.127079f, 0.020354f, -0.044906f, 0.364125f, 0.144035f, 0.482126f, -0.523336f, 0.359270f, -0.069753f, 0.620696f, 0.304547f, 0.240943f, -0.067454f, -0.122452f, -0.233015f, -0.072379f, 0.091391f, 0.052971f, -1.605443f, 0.102907f, 0.116015f, 0.181961f, -0.672961f, -0.064679f, 0.387839f, 0.084624f
};

float b2_data[] = {
    0.000000f, 0.000000f, 0.278012f, 0.246321f, 0.000000f, -0.128393f, 0.000000f, 0.000000f, 0.053077f, 0.303093f, 0.299062f, 1.087636f, 0.209052f, 0.303342f, -0.037576f, 0.917073f
};

float W3_data[] = {
    0.223527f, 0.184351f, 0.583404f, 0.478247f, -0.279460f, -0.332186f, -0.327957f, -0.167131f, 2.705990f, 0.755824f, 0.812905f, 2.452287f, -1.939348f, 0.730140f, -0.000501f, -2.972248f
};

float b3_data[] = {
    0.337217f
};

#endif //COMPLEXFN_2L_MODEL_DATA_H
